Language model created by QuickLM on Fri Aug 16 02:57:37 EDT 2019
Copyright (c) 1996-2010 Carnegie Mellon University and Alexander I. Rudnicky

The model is in standard ARPA format, designed by Doug Paul while he was at MITRE.

The code that was used to produce this language model is available in Open Source.
Please visit http://www.speech.cs.cmu.edu/tools/ for more information

The (fixed) discount mass is 0.5. The backoffs are computed using the ratio method.
This model based on a corpus of 9 sentences and 49 words

\data\
ngram 1=49
ngram 2=56
ngram 3=47

\1-grams:
-1.1597 </s> -0.3010
-1.1597 <s> -0.2699
-2.1139 BAT -0.2977
-2.1139 BEAR -0.2977
-2.1139 BIRD -0.2977
-2.1139 BUFFALO -0.2977
-2.1139 CAMEL -0.2977
-2.1139 CAT -0.2977
-2.1139 CHEETAH -0.2977
-2.1139 CHICKEN -0.2977
-2.1139 COW -0.2977
-2.1139 COYOTE -0.2977
-2.1139 CRICKET -0.2977
-2.1139 CROCODILE -0.2977
-2.1139 DOG -0.2977
-2.1139 DOLPHIN -0.2977
-2.1139 DONKEY -0.2977
-2.1139 DUCK -0.2977
-2.1139 ELEPHANT -0.2977
-2.1139 FLY -0.2977
-2.1139 FROG -0.2977
-2.1139 GOAT -0.2977
-2.1139 HORSE -0.2977
-2.1139 HYENA -0.2977
-2.1139 JAGUAR -0.2977
-2.1139 KITTEN -0.2977
-2.1139 KOALA -0.2977
-2.1139 LION -0.2977
-2.1139 MENLO-REGULAR;} -0.2699
-2.1139 MONKEY -0.2977
-2.1139 OWL -0.2977
-2.1139 PANTHER -0.2977
-2.1139 PEACOCK -0.2977
-2.1139 PIG -0.2977
-2.1139 SEAL -0.2977
-2.1139 SHEEP -0.2977
-2.1139 SNAKE -0.2977
-2.1139 WHALE -0.2977
-2.1139 WOLF\ -0.2699
-2.1139 \CF2 -0.2977
-2.1139 \DEFTAB720 -0.2699
-2.1139 \F0\FS24 -0.2977
-2.1139 \PAPERW11900\PAPERH16840\MARGL1440\MARGR1440\VIEWW10800\VIEWH8400\VIEWKIND0 -0.2699
-2.1139 \PARD\PARDEFTAB720\PARTIGHTENFACTOR0 -0.2699
-2.1139 {\*\EXPANDEDCOLORTBL;;\CSSRGB\C0\C1\C1;} -0.2699
-2.1139 {\COLORTBL;\RED255\GREEN255\BLUE255;\RED0\GREEN0\BLUE0;} -0.2699
-2.1139 {\FONTTBL\F0\FNIL\FCHARSET0 -0.2977
-2.1139 {\RTF1\ANSI\ANSICPG1252\COCOARTF1671\COCOASUBRTF500 -0.2699
-2.1139 } -0.2699

\2-grams:
-1.2553 <s> \DEFTAB720 0.0000
-1.2553 <s> \F0\FS24 0.0000
-1.2553 <s> \PAPERW11900\PAPERH16840\MARGL1440\MARGR1440\VIEWW10800\VIEWH8400\VIEWKIND0 0.0000
-1.2553 <s> \PARD\PARDEFTAB720\PARTIGHTENFACTOR0 0.0000
-1.2553 <s> {\*\EXPANDEDCOLORTBL;;\CSSRGB\C0\C1\C1;} 0.0000
-1.2553 <s> {\COLORTBL;\RED255\GREEN255\BLUE255;\RED0\GREEN0\BLUE0;} 0.0000
-1.2553 <s> {\FONTTBL\F0\FNIL\FCHARSET0 0.0000
-1.2553 <s> {\RTF1\ANSI\ANSICPG1252\COCOARTF1671\COCOASUBRTF500 0.0000
-1.2553 <s> } 0.0000
-0.3010 BAT BEAR 0.0000
-0.3010 BEAR CHICKEN 0.0000
-0.3010 BIRD BUFFALO 0.0000
-0.3010 BUFFALO BAT 0.0000
-0.3010 CAMEL CHEETAH 0.0000
-0.3010 CAT KITTEN 0.0000
-0.3010 CHEETAH DOLPHIN 0.0000
-0.3010 CHICKEN CAT 0.0000
-0.3010 COW CRICKET 0.0000
-0.3010 COYOTE CAMEL 0.0000
-0.3010 CRICKET CROCODILE 0.0000
-0.3010 CROCODILE COYOTE 0.0000
-0.3010 DOG ELEPHANT 0.0000
-0.3010 DOLPHIN DONKEY 0.0000
-0.3010 DONKEY DUCK 0.0000
-0.3010 DUCK DOG 0.0000
-0.3010 ELEPHANT FLY 0.0000
-0.3010 FLY FROG 0.0000
-0.3010 FROG GOAT 0.0000
-0.3010 GOAT HORSE 0.0000
-0.3010 HORSE HYENA 0.0000
-0.3010 HYENA KOALA 0.0000
-0.3010 JAGUAR LION 0.0000
-0.3010 KITTEN COW 0.0000
-0.3010 KOALA JAGUAR 0.0000
-0.3010 LION MONKEY 0.0000
-0.3010 MENLO-REGULAR;} </s> -0.3010
-0.3010 MONKEY OWL 0.0000
-0.3010 OWL PANTHER 0.0000
-0.3010 PANTHER PEACOCK 0.0000
-0.3010 PEACOCK PIG 0.0000
-0.3010 PIG SEAL 0.0000
-0.3010 SEAL SHEEP 0.0000
-0.3010 SHEEP SNAKE 0.0000
-0.3010 SNAKE WHALE 0.0000
-0.3010 WHALE WOLF\ 0.0000
-0.3010 WOLF\ </s> -0.3010
-0.3010 \CF2 BIRD 0.0000
-0.3010 \DEFTAB720 </s> -0.3010
-0.3010 \F0\FS24 \CF2 0.0000
-0.3010 \PAPERW11900\PAPERH16840\MARGL1440\MARGR1440\VIEWW10800\VIEWH8400\VIEWKIND0 </s> -0.3010
-0.3010 \PARD\PARDEFTAB720\PARTIGHTENFACTOR0 </s> -0.3010
-0.3010 {\*\EXPANDEDCOLORTBL;;\CSSRGB\C0\C1\C1;} </s> -0.3010
-0.3010 {\COLORTBL;\RED255\GREEN255\BLUE255;\RED0\GREEN0\BLUE0;} </s> -0.3010
-0.3010 {\FONTTBL\F0\FNIL\FCHARSET0 MENLO-REGULAR;} 0.0000
-0.3010 {\RTF1\ANSI\ANSICPG1252\COCOARTF1671\COCOASUBRTF500 </s> -0.3010
-0.3010 } </s> -0.3010

\3-grams:
-0.3010 <s> \DEFTAB720 </s>
-0.3010 <s> \F0\FS24 \CF2
-0.3010 <s> \PAPERW11900\PAPERH16840\MARGL1440\MARGR1440\VIEWW10800\VIEWH8400\VIEWKIND0 </s>
-0.3010 <s> \PARD\PARDEFTAB720\PARTIGHTENFACTOR0 </s>
-0.3010 <s> {\*\EXPANDEDCOLORTBL;;\CSSRGB\C0\C1\C1;} </s>
-0.3010 <s> {\COLORTBL;\RED255\GREEN255\BLUE255;\RED0\GREEN0\BLUE0;} </s>
-0.3010 <s> {\FONTTBL\F0\FNIL\FCHARSET0 MENLO-REGULAR;}
-0.3010 <s> {\RTF1\ANSI\ANSICPG1252\COCOARTF1671\COCOASUBRTF500 </s>
-0.3010 <s> } </s>
-0.3010 BAT BEAR CHICKEN
-0.3010 BEAR CHICKEN CAT
-0.3010 BIRD BUFFALO BAT
-0.3010 BUFFALO BAT BEAR
-0.3010 CAMEL CHEETAH DOLPHIN
-0.3010 CAT KITTEN COW
-0.3010 CHEETAH DOLPHIN DONKEY
-0.3010 CHICKEN CAT KITTEN
-0.3010 COW CRICKET CROCODILE
-0.3010 COYOTE CAMEL CHEETAH
-0.3010 CRICKET CROCODILE COYOTE
-0.3010 CROCODILE COYOTE CAMEL
-0.3010 DOG ELEPHANT FLY
-0.3010 DOLPHIN DONKEY DUCK
-0.3010 DONKEY DUCK DOG
-0.3010 DUCK DOG ELEPHANT
-0.3010 ELEPHANT FLY FROG
-0.3010 FLY FROG GOAT
-0.3010 FROG GOAT HORSE
-0.3010 GOAT HORSE HYENA
-0.3010 HORSE HYENA KOALA
-0.3010 HYENA KOALA JAGUAR
-0.3010 JAGUAR LION MONKEY
-0.3010 KITTEN COW CRICKET
-0.3010 KOALA JAGUAR LION
-0.3010 LION MONKEY OWL
-0.3010 MONKEY OWL PANTHER
-0.3010 OWL PANTHER PEACOCK
-0.3010 PANTHER PEACOCK PIG
-0.3010 PEACOCK PIG SEAL
-0.3010 PIG SEAL SHEEP
-0.3010 SEAL SHEEP SNAKE
-0.3010 SHEEP SNAKE WHALE
-0.3010 SNAKE WHALE WOLF\
-0.3010 WHALE WOLF\ </s>
-0.3010 \CF2 BIRD BUFFALO
-0.3010 \F0\FS24 \CF2 BIRD
-0.3010 {\FONTTBL\F0\FNIL\FCHARSET0 MENLO-REGULAR;} </s>

\end\
